{"fc1_weights": [[-0.07361744743084528, -0.04505317875651521, -0.07786163287783901], [-0.4720620859208943, -0.4831387246301013, -0.53555756268336], [0.05646841060856433, 0.2237970424049155, -0.5151850270529998], [-0.36493964072757046, 0.013806472035016955, 0.3305213501842155], [0.030472614582407145, -0.2705877456235081, -0.6428734644310268], [-0.241696597079326, -0.3356186984229574, -0.20277031963302783], [-0.4044234743509885, 0.6243347773956645, -0.3389581762458865], [0.20707273179556662, -0.2446033901931343, -0.08576534891304546], [-0.32439639846956264, -0.3450508978701458, 0.18973275445958462], [-0.34248692101408834, -0.09253242836630338, 0.09766220844209836], [-0.08794147062770315, -0.3234341006800292, 0.03184967620993233], [0.28958985207523263, -0.462494894860501, -0.05572330906479325]], "fc1_biases": [0.12944567470225932, 0.020356052265052806, 0.2395702371275668, -0.5627619034364331, -0.052108401743143934, 0.014097667639973221, -0.32546206215314133, -0.10616087711314069, 0.11392864720277487, 0.5441418257718875, -0.22380240561765857, 0.07481891581275223], "fc2_weights": [[0.11406616308298723, 0.03389802907740679, -0.11369098448661187, -0.11176535307914418, -0.05288810608849505, -0.09721927577792867, -0.024415768906913247, 0.17408005729465334, 0.2380899988237611, 0.24459079444293988, -0.07549934481643707, -0.04684626107240099], [0.03395777668952523, -0.2608978474209921, -0.12522247627590288, 0.21354355168634678, -0.22016457975055265, -0.21769317054992418, -0.27140694714353336, -0.13805974333745788, -0.17366806299214008, -0.16706184834963367, 0.19101338686603478, -0.06667421381248574], [-0.22770460610828144, -0.18513102639697862, -0.2229525195880775, -0.15833635488528547, 0.19365266573146894, 0.1537757268948089, 0.04949621917679786, -0.16373925502416445, -0.1009113678839507, -0.19576065545751337, -0.05468632330659931, 0.011142973347020335], [0.1633762445666536, 0.08103997690684789, -0.21832085311198438, -0.19875012329417066, 0.15603765000182296, -0.0963132989920287, -0.19399860946832073, 0.23719424321825852, 0.06823783231647595, 0.21114203049011998, -0.14205809074537018, 0.1657989621108169], [0.1320365913053476, -0.19047717714347157, -0.024385553243117194, 0.13516102789775178, 0.30251770314648146, -0.11038600582551086, -0.2539413743421806, 0.15582757357471397, 0.06962644138245888, 0.17606611626505414, 0.005195953130395316, 0.01051879385630386], [0.19404760837680154, -0.12381670108345896, -0.0009458558858789387, -0.12323347177519353, -0.17568665154232402, -0.2554252918238827, 0.0640057618411267, -0.13131306943278503, -0.02323019436720587, 0.21735786726489317, -0.04620381293111889, 0.052094789454891495], [0.12392588331062991, -0.2655990776967515, -0.12013092845485243, 0.19129934532162385, 0.0714061598587095, -0.25999143699578886, 0.27736109603639436, 0.14411556594215502, -0.24733552475330445, -0.09680312434666248, -0.007916980693467237, -0.01982265299088972], [-0.2220214110731304, 0.13244496856035623, -0.14977546107338427, 0.3261952745455543, 0.12976480716771602, 0.2474994828564841, 0.03553229901213768, 0.0793713178552419, 0.11551650977921635, -0.06913856581674663, 0.30982274295453116, -0.16510066783333413], [0.16825362293352575, -0.01272062384200853, -0.19438722322134266, 0.14352239553839036, 0.12357358328651127, 0.287236121648843, -0.17408084465938892, 0.12144710860870206, -0.1482523918777107, 0.2027774140475205, 0.26401393401120377, 0.018053762078493737]], "fc2_biases": [0.04993969428838399, 0.16722332811514837, 0.12382367018263371, 0.21792669533096082, -0.25592684629313517, -0.08399106970717761, -0.012893818370768742, -0.21728816551097302, 0.132254310048294]}