{"fc1_weights": [[-0.17516607741171822, -0.3415287364591918, -0.5677287718960687], [0.3157437194851111, -0.27925555399271496, -0.12776632762415216], [-0.3748823616471663, 0.2960291947645509, -0.5764317016095725], [-0.23639982161451448, -0.329421198571875, 0.1321533936071511], [-0.1412319167004327, 0.07454855150291724, -0.48386609320985485], [-0.04920103536457632, 0.41650220218651596, -0.3801039018809925], [-0.05423022614815977, -0.17033882592902577, -0.16874239138460256], [-0.4903597732697509, 0.36506658943362974, -0.5127127179124836], [-0.6251970767648901, 0.02866253508162737, 0.146015961020244], [-0.39342413457415343, -0.20120399264315403, -0.5109017047719365], [-0.41927018371863795, 0.27038838248156877, -0.15594129447126553], [-0.26782000622879776, 0.16203174044308566, 0.14658885989309947]], "fc1_biases": [-0.16684826895842872, 0.45914257605145586, -0.25649571792126047, -0.5555684240527894, 0.2763870140914816, -0.45744537002110763, 0.11319055860998163, 0.4721994721694038, 0.3373500720822529, -0.4169832078977416, -0.05466079927370159, -0.23886878739499198], "fc2_weights": [[-0.13673390011860612, 0.026072424751196935, 0.01205269739198827, -0.10396930190012141, -0.22074825036591172, -0.20978454989698544, -0.28172160896008264, -0.1905155136328797, -0.1204340821883631, -0.16692914338624282, -0.1842209507233637, 0.1659888522763279], [-0.04543251482172482, -0.21865091064048228, 0.20557357878944504, -0.023207755333844567, -0.20876567646067717, -0.028939165800411254, 0.0626559358853912, -0.17781810438806575, -0.1249322980006043, -0.2452578546925098, 0.00423984787695784, 0.1495370176464484], [-0.2746341967619884, -0.11614741152862953, 0.10308516279242484, 0.20588967697634064, 0.12284941227683965, -0.03126772649059251, 0.18001760385807017, -0.006116198140845219, 0.08565199881322859, 0.039797801303943205, -0.04059372902448649, 0.09951152965335551], [-0.07321381904376796, 0.1492594445902117, -0.08549876990204401, 0.24032910767129803, -0.10992008932627179, 0.04181952282740973, 0.14840521150538827, 0.17233891967506657, -0.07107059304042514, 0.10938779441066883, 0.03683909051093387, -0.021025203536696017], [-0.1591945492402006, 0.045430648947772365, 0.2497740981754106, 0.23480373294540133, 0.033413810684594, 0.1657645367442886, -0.11283953380668023, -0.27768517765917033, 0.11761311617119675, -0.04833595691850524, -0.13407667615005103, -0.1190887210122784], [0.14652326431520046, -0.08250765656064248, 0.03189217977665001, -0.24071681625841476, -0.09002841420724118, 0.27385328942204135, 0.03178614882248701, -0.0063914801593223545, -0.05208406153767646, -0.229837600257978, -0.08857478195204965, -0.1719914994588957], [0.14254847841159088, -0.11795961623689208, 0.0032301621447932464, 0.15932972601063408, 0.2152168289165559, 0.20737447926370112, 0.0583468193328894, 0.1568768546253361, 0.21355731028667294, 0.19829435443797033, 0.04033234259630103, 0.09965916956095003], [0.13919911619642747, -0.1439869337256428, -0.2628096211344867, 0.19753013257788787, -0.16695646970941194, -0.17817355358879533, 0.046946415545973647, -0.16031573868917864, 0.3139061547522188, -0.03745315012002751, -0.14726663138562288, 0.22901023420970115], [0.03928478069669179, 0.009700919218351632, -0.22392400743732188, -0.014934662744244487, 0.0009012075397911384, 0.07620575711675269, -0.08522611676116736, 0.06261568973028613, -0.2638701956223838, 0.22971557170925033, -0.0736205835310972, -0.27583420160171207]], "fc2_biases": [0.04282633295706563, 0.14402073526835685, -0.043156790127793526, 0.006480117331483676, -0.16737189584560735, -0.19915066848858254, -0.09530607851286048, -0.21005265505505105, 0.16599332564829097]}