{"fc1_weights": [[-0.4855508803222925, 0.118158458887653, -0.5272041414265055], [-0.23485955638432365, -0.2844680743640618, 0.38684683500884975], [-0.2716558382003989, 0.016201415641876205, -0.09670690217800733], [0.14094787994365424, -0.09618372891389203, -0.18002090158394857], [0.210123309272356, -0.6333648389532577, -0.04472080936129305], [-0.16999342244678534, -0.5320978782334513, 0.20719562240335934], [-0.42186390902195386, 0.06252516082789053, -0.151076197810826], [-0.22801275185110853, -0.0431643638887957, -0.40405450180479985], [-0.04116152679142844, -0.29472276133047404, -0.4056505556798542], [-0.14566959505951996, -0.23391592735676503, -0.7175030297148115], [-0.25874649022812185, 0.3546795048370431, -0.4788119538037619], [-0.5068127067545958, 0.14693162761046427, -0.6780923606178303]], "fc1_biases": [-0.5765977595490122, 0.5319123919751916, -0.30862368720535505, -0.2664916924045296, 0.10677648397610054, -0.24068143151537075, 0.10397562974720762, 0.1703162286242633, -0.5359251058786213, 0.33768796027954995, -0.17854425815905137, 0.27029212396455937], "fc2_weights": [[0.24240977013266113, -0.08603314857756618, 0.12712439010432383, 0.13774735352157727, -0.2503462990330103, 0.043095000246916704, 0.023525141279898056, 0.1987528066808829, -0.18083715394474853, -0.062475019886595186, 0.16002944091087548, -0.048299637134634026], [-0.18115608707071285, 0.1888893796390975, 0.07989413465169173, 0.16127041479550416, 0.030553474029578007, -0.22731808171657902, 0.059472159396049606, -0.33265377228513693, -0.03556213150956095, -0.25306244327471944, -0.08541754603746814, 0.08068302759925355], [0.19797914134726322, -0.23531417651221184, 0.27313942888915743, 0.17509855187007345, 0.03773788838566709, -0.2199162249974743, -0.03537868167505643, -0.2577180814948871, 0.12964952149026268, -0.05342855320800149, 0.01845195179649503, -0.08723326687196607], [0.04401917136939868, -0.20133808647248225, -0.246019674836756, 0.2167533784610225, 0.21932213277349247, 0.056077605885517634, -0.07457046051905737, -0.04188740172249988, -0.03732525746363346, -0.011733305469196495, 0.18889405090180328, -0.15507552345578265], [0.24080438517534677, 0.010254545447481483, -0.08061684590979178, 0.33930725259387284, -0.2215300781942343, 0.0026998216976934918, -0.2519437563781087, -0.01884811642754553, 0.19330680142217224, 0.07496753763952677, -0.013669633522248176, 0.015752517476313097], [-0.08474736180286016, -0.30685616583298414, -0.08864085792972358, 0.2766471763996978, 0.0020339996946915095, -0.26084795626392243, 0.056373903148362124, 0.2533939291587348, 0.26821118170487696, 0.39823610260207293, 0.17691207434877038, -0.040658252684305084], [0.2617857168832871, -0.08187559037859275, -0.07574478390822884, -0.13508155157013543, 0.14295138765038223, 0.11671006165086843, 0.04933647476465191, -0.07424293789806088, -0.18013123767627337, -0.4237448642477783, 0.28188780830896243, 0.1599932389828015], [-0.20166688443994643, 0.47069367089538167, 0.01862290716433934, 0.17394905654537252, -0.09887270895557153, 0.2835702758544076, 0.2557101578074923, -0.10167036019517217, -0.052274091900522165, 0.12643799263867395, 0.13806294454325846, -0.13690871369583116], [0.27909344700081823, 0.10908726414248879, -0.10002599143802032, -0.12675039652560352, -0.08550989495922418, 0.09955235908383032, 0.036326336500591486, -0.20388925079886666, 0.08485062575892223, -0.211211797181709, -0.2663371007551177, 0.1884281315808905]], "fc2_biases": [-0.0964316521059156, 0.25403898551641485, 0.1360283885704822, -0.1627604949145168, 0.219945102973147, 0.24111703023654488, 0.28406456515782164, -0.11478324457288722, 0.11768666210871055]}