{"fc1_weights": [[-0.4909098464247394, -0.4632348850055905, -0.18355005162814578], [-0.4720843829414042, -0.1398725149086326, -0.5218694661033694], [0.3065563198417545, -0.13275990926138076, -0.4075250757403386], [-0.4132843064829093, -0.548319402156806, -0.043189914867921425], [0.07188941293127966, -0.3143977968119876, -0.20591681351030774], [-0.0077649773034731435, -0.019795024624683317, -0.6365879026470593], [0.018388957641466523, -0.4087375708411095, -0.17149500517688424], [0.06567902713881271, -0.4281991228527576, -0.4507635433660462], [0.009248933444055056, -0.41450114651923475, -0.061070314759933575], [-0.1934410381541872, 0.5736600724692185, -0.4488453549169716], [-0.03543250381946865, -0.09671353732291138, -0.47508597162960936], [0.2559399093166994, -0.6144133204318352, -0.2454136066538757]], "fc1_biases": [-0.05301783990748249, 0.04510310553336172, -0.5125725145766281, 0.18760065014288643, 0.11892529812606731, 0.2147812348035406, -0.2235144484641248, -0.2908268156382058, -0.2701399170354333, -0.4574291012700971, -0.22071357029078228, -0.16275457609676888], "fc2_weights": [[0.0785403736806899, -0.057796940255367246, -0.18919401784962364, 0.2516428233776491, 0.03883373285287265, -0.09014760315169003, 0.25691721437902765, 0.04443528074416816, -0.03956162848724502, -0.21080099155962248, 0.12668698105057924, 0.06015200326173412], [-0.2666880447784646, 0.2861036440244315, -0.05901666668139405, -0.0727286093088207, -0.11203783032168609, 0.18302791029452753, 0.28188578705133277, -0.25293469677811775, 0.23590634872987856, 0.06069989882027103, 0.07361483833590259, 0.3200175902677642], [-0.18483868022777833, -0.09718723702832868, 0.09835693594114764, 0.06702225998030902, 0.0008874808167064061, 0.014058918543343592, -0.2850508560634551, -0.1395647575390452, -0.060811511857914474, -0.013023107189732078, 0.08351680791949068, 0.24707792247205917], [-0.09273690607174094, 0.01843105190621347, 0.25332154826643005, 0.19291800593062924, 0.12966454460515162, -0.13415270513661331, -0.07146477086562024, -0.1346228355607429, 0.07298570538984368, -0.27567240723115033, -0.17266224201848737, 0.2044150920107798], [0.06045457645514703, -0.2310671314553901, 0.2993328221545375, 0.10676962669016118, -0.09219434479010137, -0.22211980738323003, -0.1306465051345648, -0.14270570241165495, -0.1255432082570865, 0.01295167992875093, 0.05992199408438022, 0.053084192832572194], [-0.163513182347569, 0.23784259154044488, 0.20745230858660121, 0.0915177937919142, -0.20214138946865842, -0.10074116569266504, 0.14897739178165298, 0.12185876137186348, -0.1708031078339581, 0.1320180741862449, 0.26054707720169795, 0.059078294161329384], [0.14563205855295763, 0.007338002462121264, -0.07987822902270651, 0.11320030667136809, 0.12683254197516872, -0.12285000129266663, -0.2778631844024129, 0.013921443500747253, -0.04012902985050381, 0.21802156688240268, -0.010399007697861335, 0.23516087172472608], [-0.021781520550133014, -0.22109035817040412, -0.02894352603638664, -0.15271049171653445, 0.20836849154945958, -0.2719515777235345, -0.2378996772852514, 0.06027462013710608, 0.4386629457384011, -0.23602227630131511, 0.2543708837165229, -0.12640874354248752], [-0.16675937753313436, -0.16257008352260724, -0.3194869640810627, -0.20927801135548207, -0.05181474209094629, 0.07138735346955061, -0.24252128977575776, -0.07405693648211001, -0.12366641693295678, 0.04058345536838029, -0.1443971939437676, -0.1703721915273764]], "fc2_biases": [0.17625242635734517, -0.05067740601415905, 0.07228531891252993, -0.2614039760648488, -0.19815268051531473, -0.06686794547600912, 0.03135749567623272, 0.27867637764765596, 0.14353695155763352]}