{"fc1_weights": [[-0.2530448862940213, 0.41684739984389957, -0.44189054951067513], [-0.12380908673466914, -0.40327541749622625, 0.14147223007507978], [-0.013225060340710347, -0.45368726690219413, 0.46551660361269176], [-0.041566129799872856, 0.034570626607682516, -0.22778034398563662], [0.06562019609228804, 0.1931501345486119, -0.5587414190440952], [-0.31690815847145115, 0.1278312825523787, -0.2912234468575387], [0.18480607253140582, -0.4631447523888523, 0.1379631370501846], [-0.1658216969226949, -0.38550927388206113, 0.22787168363356455], [-0.04849681493341593, 0.04609224856659329, -0.2942969964764452], [0.3178070207711897, -0.5572588531555297, 0.12384275131204102], [-0.3622502322172962, -0.18227399377909506, -0.44818531226733327], [0.05857753255308765, 0.14368823197687905, -0.4738558766743267]], "fc1_biases": [-0.26488914089419, 0.39439632940444436, 0.37711699517053865, 0.2961047700192875, 0.5393483213494534, -0.35800832626429124, 0.5192648871085763, 0.17522571170378567, -0.3304912798714689, 0.26005946664959845, -0.32051058740942656, -0.5475270637089772], "fc2_weights": [[-0.09293032897416886, -0.18238689046415313, 0.03496065576048755, 0.10767407812457733, -0.08025685452009178, 0.2113243553249246, 0.07709868878592416, -0.03436157640407737, 0.08420103084989057, -0.24996395528340248, -0.04689534684350025, 0.14177022432143097], [-0.1732554935192956, 0.23257456836621418, -0.19536819487846363, 0.21212223928691318, 0.15110052492896556, -0.12329014018651618, 0.01567394924424841, -0.24912680471584842, 0.13816740306965963, 0.10111666924123511, -0.12328422377016596, 0.1605660086779848], [-0.27832271306065065, -0.10087888662293788, 0.19817301986939462, 0.13390092151332533, -0.050225841366492725, 0.1605667667797278, 0.04804007271842132, -0.18625993786112913, 0.15054012895021324, -0.0479485255927302, 0.008765503144933073, -0.08239605314058394], [-0.08933676004888222, -0.13035619383561348, 0.1171353145897246, 0.13108164490070726, 0.2046955118447845, 0.2682006935381997, 0.14084977360153053, -0.2194807493854619, -0.18977253800027125, 0.14348231059122885, -0.15837122363806633, -0.054973177042925196], [-0.08746684600770034, -0.20397828910781765, -0.07228511662809217, -0.013424749168387907, 0.1696999008659391, 0.049546432994629484, -0.27232031271223184, 0.08903086723927424, -0.04938961312715727, 0.20760551459698579, -0.02520969615428161, 0.18525339880486993], [0.1095722396097949, -0.23400926817557036, -0.15117806313900248, -0.1406159980122227, 0.15264804904516768, -0.020933901769841105, -0.1332284689080572, -0.05973976922197559, 0.3052339319638888, 0.001989494388127345, 0.1223799571986205, 0.2597114905795603], [0.17038606486310137, -0.12076763443602367, 0.05803294399408018, 0.2796959924240094, 0.08311163231009652, -0.06729123013027716, -0.06820661370323214, 0.1703887149569297, 0.2509134271854137, 0.0047224089369068524, -0.10174870733309806, 0.2874476203936734], [-0.17785589685159822, -0.21579000281040045, 0.39155717300580023, 0.21188717349836336, 0.12644844334970817, -0.06728767481703472, -0.23042770439135055, -0.009206188571419156, 0.23819709506127748, 0.05554920481226672, 0.13857590988791058, 0.2515881832590063], [-0.226269184871606, 0.15213437267286092, 0.3080334444969477, -0.474294914566461, -0.4302328858007515, -0.3184109824622184, -0.08605946015730788, -0.08939862209074087, -0.32531455727254516, 0.017215634348201527, -0.10166093080468747, -0.45399913622313537]], "fc2_biases": [-0.1826252160783116, 0.028203940061884276, -0.16386847843456523, 0.08633397193762787, -0.20231792451483113, -0.11720623275114789, 0.2839499468358803, -0.2593544062381055, -0.20212557342522874]}