{"fc1_weights": [[-0.21587077402639263, 0.039232635558889964, 0.206865827898018], [-0.2837982405591983, 0.4737132328685906, -0.46202416723773543], [0.1104506528284801, -0.43872398819567243, -0.4879689746691511], [-0.02444841800239892, -0.1470887104762449, -0.4557764519812446], [-0.2789796014375909, -0.4566967099755979, -0.5374809324571822], [-0.42152974920482855, 0.15668974710491465, -0.09049839255392901], [0.015501064707189045, 0.19480494438162252, -0.6046666294330637], [0.23020163675276434, -0.14520525286151384, -0.3128934731313185], [0.17817266314079722, -0.5064853330717447, -0.38921818855358015], [0.037798824576998125, -0.5261048563980435, -0.47313328960323253], [0.0806908486938626, -0.0008987212998088452, -0.5116632605136909], [-0.27177204959716555, -0.25843304293417363, -0.07923564834445705]], "fc1_biases": [0.4447924913901591, -0.0471506478150534, 0.3456015653428867, 0.3512176118455944, -0.18900534822062334, -0.07775172810761197, -0.33060545854455853, 0.004202191046992543, 0.23036965449154537, -0.29564024135104805, 0.45659962261999265, -0.22857448498270339], "fc2_weights": [[-0.0024703743466974563, 0.1362594011116466, 0.22853914184476293, -0.07981340855263241, 0.277829204073941, 0.0971186367927103, 0.1815310216636294, -0.07541296640031207, 0.04847860562190075, 0.16353892221825964, -0.22181253002417722, 0.1309287504565284], [0.1315511923223639, -0.13182071853720215, 0.06627076286143335, 0.18832089296445642, 0.1418190786482026, -0.25124354058049964, -0.08237648919444238, -0.030483657829321054, 0.19068363147546089, -0.05871765616025637, 0.22175894051459116, 0.1475287657945002], [0.16857543880561465, -0.15361675648773837, -0.11651657735763886, -0.16922078379596084, -0.2185951621050173, -0.036389785368724725, -0.2305126665087684, -0.291344931374605, 0.13536227515633686, -0.14073193679153367, -0.13973958879560475, -0.01549966405982011], [0.0658874781345916, 0.030674693134557972, 0.0889684716951113, 0.15494703234972038, 0.040937465470853265, 0.2496741937693721, 0.0018817350557051456, 0.33149877971144, -0.02436543653335995, 0.05335216207463197, 0.16597279769633497, -0.1591354569483614], [0.09617531234418711, -0.042813118365884285, 0.07432018054392474, -0.1645936000375041, 0.09190490287369668, -0.007694279185856751, 0.17092818152921446, 0.2875513719024519, -0.13297866930919222, -0.1948202251885373, 0.25854690012291426, 0.21062768802167475], [-0.2335975410686515, 0.05843664339381017, 0.10463947933819781, 0.11887292531868339, -0.03558781671766723, -0.09648268559802838, 0.2942261382799003, 0.12787392794615238, -0.08951008529881857, 0.26101113850606433, 0.1963182744954189, 0.04840379689853398], [0.2244139479137832, 0.33906802418075854, -0.11164049689277918, 0.12994564630710337, -0.27651554031448944, 0.1792211111918901, 0.14608540876334583, 0.02323931877361037, -0.17291887774749382, -0.1635018363395762, 0.058745016269926065, -0.0736400383741768], [0.31085654430048093, -0.16339464390489516, 0.17897619925007732, -0.027705514167863828, 0.16614172096761148, 0.019881043509149876, -0.12730274755080453, -0.01590829614173562, -0.010153923150616011, 0.0035159443246924717, -0.2690199540846107, 0.265331210016734], [0.10591458395122155, -0.23839260382329175, 0.11109465178771684, 0.07152570053750999, 0.1638904628398761, -0.23704612197251873, -0.19335089903167688, 0.019966940835092345, -0.012411671860838237, 0.04195719115001697, -0.028825303157515976, 0.07579153328650075]], "fc2_biases": [-0.14493456638589325, -0.24612070246942125, -0.15149961853014643, 0.12363532645899492, -0.28128017492751883, 0.28178138281081644, 0.24069278551250453, -0.204939440512028, -0.26601682693765843]}