{"fc1_weights": [[-0.5070185326905493, -0.19822072913522565, -0.4525024655547018], [-0.5628532325855208, 0.3012129230912498, 0.027418068534758634], [0.22920393728205027, -0.7371275043239018, 0.0039828869885757635], [-0.45016207865339347, -0.49966863800049305, 0.1212754858538546], [-0.39114564749928327, -0.9486133876996126, -0.5687542086517707], [-0.187306301432313, -0.4216635271514059, 0.05267414736835897], [-0.47957099082672794, -0.6609924706783329, -0.14656092808799992], [-0.4213706281485215, -0.12822923348797088, 0.1736717924826924], [-0.1487933028540242, -0.13320616367874977, 0.40745327938114906], [-0.14813970785772984, -0.257878194678882, -0.4721709494308586], [0.06982921352333371, -0.37872665520607196, -0.12302309205800371], [-0.6770273151560641, -0.7424986336894247, -0.18332711347014083]], "fc1_biases": [-0.20596836446784264, -0.23580318631422767, 0.24476729564634292, -0.2732001671770605, -0.32409657564782096, 0.34560355771314577, 0.47847208378653816, 0.11649766292050168, 0.241990808511741, -0.19364651178970343, 0.2843361045503557, -0.33866641629483535], "fc2_weights": [[-0.1134577271753822, -0.10778254133139847, 0.17056334569253134, -0.16390076428743622, -0.020213545074395635, 0.23871973444676095, -0.12861903271049382, 0.015373410407134427, 0.15358029482864372, -0.09730653609553462, -0.2507092594516492, 0.15093744128478442], [0.037049519884152914, -0.20400263244286704, -0.10243187818166338, -0.012243030719253775, 0.22497503500092245, -0.0690094037148459, 0.26615058262055413, 0.011245554811849322, 0.038493303228873184, 0.058766541989297066, -0.09058214079799572, -0.13404450061090828], [0.131433569653208, -0.27453277823650246, 0.170711544343674, -0.3015814823391108, -0.25672626372075874, 0.14423630378095345, 0.20772791771885793, -0.1725881702637442, 0.16652929409786982, 0.21150411190283047, -0.08682285667282832, 0.00017709037985643895], [-0.16577179347314752, -0.009462997433623957, 0.3867779649176741, 0.1095278565161403, -0.19518321416545228, 0.12117825306404696, -0.042556092534551414, -0.04478848688670029, -0.09531074635441447, -0.22988990872746717, 0.08477441878426015, -0.3591607725796049], [0.20419957664625465, -0.2791207854447082, -0.08004742975554159, -0.1977344204997611, 0.12120566130825643, 0.15306734813579445, -0.0445857839689917, -0.14274458416156968, -0.10439476548613284, 0.22435554721578438, 0.12891378215356306, -0.21770871807605463], [0.16500156397245413, -0.2202423751725859, 0.1526048662306767, 0.09290381335758362, 0.2435142155248566, 0.1600995476182838, -0.23022557289148582, -0.12753647406854196, 0.13877918672624626, 0.4872113969594724, 0.027706288359659867, 0.06895167110153948], [0.10566298734578189, 0.19601853570102742, -0.18784905537616514, 0.2410790498963718, 0.05735695934983253, -0.1912755805838799, -0.21076328055090826, 0.022855682846702186, 0.05493317182599977, 0.364881861337941, -0.1627260517869181, 0.46217417400847133], [-0.05292599029488507, 0.03875729724394441, -0.22907335000773826, 0.21385305475286856, -0.16235877253034983, -0.037730139976379425, 0.06868140586932091, 0.10510469361693411, 0.43333820751469815, 0.11091127770088567, 0.019126708680313013, 0.337485329633983], [0.16819258972025503, -0.14002451308376662, 0.1482035918365291, 0.025470862282463345, -0.08120026440463661, -0.06353137775842216, -0.09449131801449191, 0.04765045816191193, 0.1494636220101314, -0.2864078883669035, -0.12130210437769973, -0.04670304209172754]], "fc2_biases": [-0.10149214723501923, 0.21994793137894222, 0.08867598691658846, -0.13149356591382552, 0.07217836719560211, 0.26565158077274054, 0.24282898822705354, -0.19021407806053253, -0.30911559896909974]}