{"fc1_weights": [[0.21608740013553288, -0.024337643755704044, -0.34539599320685804], [-0.14936456391809672, 0.3074259098878898, -0.1593626920446942], [-0.021134835796905845, -0.5684588979248644, 0.21855180402667568], [-0.19568901757332302, -0.304463514193503, -0.2974630977803042], [-0.23172976808875734, 0.23034599021600297, -0.5645627548087739], [-0.1150727599813959, -0.4622366796205197, 0.18667297877105393], [-0.5101265666524275, 0.1190173428206501, 0.14685780094049955], [-0.3554901085136217, -0.56778823810475, -0.24716871686498748], [-0.16926175694697868, -0.15205726830081956, 0.25158345399655896], [-0.27219717042510333, -0.006258149572891098, 0.05008273031777855], [0.3299131157315212, -0.5270572554671681, -0.23267041550323053], [-0.3445837269131639, -0.23184184592839532, 0.3400283714980758]], "fc1_biases": [-0.5020648477855898, -0.4960050654019391, 0.13408013765478563, -0.03523277113587813, -0.025588552743354934, 0.21931085321093208, 0.1340518044636473, -0.2497942124090939, -0.19990086231038454, 0.2700184183636983, -0.14044211068439483, 0.025865698256857153], "fc2_weights": [[0.17354478755662966, -0.23537054035979796, -0.14462464380274068, 0.13467597444181953, 0.030178140206178546, 0.21980647808831097, 0.11920988967443706, -0.14484615819433358, 0.10342117979898847, -0.2752578973933432, -0.0435448998030164, -0.13197375062872516], [-0.05647070566683685, -0.2715157830940616, -0.0795721956484935, 0.10813254660576914, 0.2649694906830369, 0.13001665494350007, -0.04036826588595051, -0.017449825927774228, 0.08818433635245942, -0.22944548139367543, 0.15166560868536538, -0.0010828547499821932], [0.06137896082782903, 0.1876496184082312, 0.04852533778365989, 0.10113423961750072, 0.03277825691897373, 0.05916173301498121, -0.10073405232197231, -0.10025036913444357, -0.047708886379050984, 0.0506721394178187, 0.09662842233849998, 0.100770662164023], [0.19821965430823849, 0.1157840118735376, -0.20413081789050844, -0.12432472264716116, -0.012098112743016668, -0.09301253701612743, -0.20723392340195634, 0.2130663068591437, -0.0053707692335852346, -0.18028031877363745, 0.18000786943606595, -0.11240558076735528], [0.3224474821857496, 0.04352574005443647, -0.1126955725422402, 0.03201840848395742, 0.14827418699104744, 0.24045569559459365, 0.072718346329485, 0.03216305095641156, -0.13569860550107873, 0.05011908273210881, 0.025599873313262172, -0.14509153680492587], [0.2820519628661767, 0.1360280645072783, -0.041634343081478405, -0.12286027846767783, 0.09034891273894334, 0.009582676432690089, 0.08442568236745981, -0.108736125404385, 0.07596935691177506, -0.17009310551106746, -0.2327668214054622, -0.1871585229255837], [0.10647025478117399, 0.21732133997988284, -0.23264154015904517, -0.15116055385537894, 0.21719000384936465, -0.08141936664276832, 0.1964260568624066, -0.20030089473864582, 0.004035907079919537, -0.024545405948593516, 0.12429225231923485, -0.22471495492483012], [0.09502607190922328, 0.06903776040872861, -0.07387302541799647, 0.13474931876428722, 0.17257658291468958, 0.22948463189562368, 0.03781587391390552, 0.16249508788147268, 0.17094330523329757, -0.12594805853739932, -0.07812607705933394, 0.00024117494797518005], [0.0777938378224563, 0.0955262511491511, 0.22622112133949085, 0.006421389821180572, 0.1710568639065895, -0.06327461901076585, -0.14786525314248983, 0.023734639613665766, 0.04105843964408583, 0.029696275629098996, -0.02058806550711179, 0.026730379287600428]], "fc2_biases": [-0.20753044609900945, 0.08819276517652978, -0.19854199457689356, -0.23175841708759642, 0.2099442498396707, -0.1815939746770138, 0.222582859107251, 0.27553505394549016, 0.123183101922339]}