{"fc1_weights": [[-0.1724154420773948, -0.7269136561303017, 0.019628243953784312], [-0.5675897165389959, 0.5555949240310564, -0.32107015483790796], [-0.09058560060331151, -0.537008995047675, -0.46283686208908237], [-0.501807728150489, 0.30056681969214594, -0.21533483581906432], [-0.046371713513720374, -0.5726412171913556, -0.14623960597235797], [-0.29226976800519194, -0.15052559603884968, -0.0629286392822725], [-0.32945121804130945, -0.22210296691152695, 0.018389703438567315], [-0.2784391675550141, -0.35398698298031034, -0.115238088275202], [-0.18308568695857655, -0.7816532243296906, 0.22530446396087372], [0.22158465314492087, -0.4875068360989067, -0.11565308635525169], [-0.37959027227307385, -0.1833343459778737, 0.4639554305840086], [-0.24341262063517874, -0.3820085625267111, -0.39369133166836257]], "fc1_biases": [0.33446472001206984, 0.4660047990278239, -0.1368216913013023, -0.048827330534428844, 0.213491612414594, 0.3930768323160927, 0.4381326424607416, 0.466504693216024, 0.049677615291618925, 0.46598432896823594, -0.0841224220138842, 0.19786470914986035], "fc2_weights": [[0.036598174536360696, 0.151720971491196, -0.17349966267255076, -0.255269098899033, 0.20291350711929607, -0.2358224469447705, -0.041888604691225524, -0.01955636274125597, -0.23928907222606202, 0.1553492663456198, -0.2573213698128648, 0.2118930459122225], [-0.1590910143503644, -0.08637848404882248, -0.28246862210271834, 0.09452492361694784, -0.1587717802203723, 0.027498860836027227, -0.12999009403131467, 0.0459083539193474, 0.12078724917955008, 0.1268920007992918, -0.09464689226797866, -0.06022152842503328], [0.18797995930728062, 0.1190799558206528, 0.03756882940354214, -0.03527187128502856, 0.03735419283818689, -0.26326140616594745, 0.025934166467836514, 0.2484960990728115, 0.01993797680525148, -0.23774370078889162, 0.17120428215772915, 0.059210185945915234], [-0.023074793746817843, -0.24675765662406246, -0.24643765659792696, -0.06312474015535659, -0.05557053786380254, 0.10188030926055516, 0.13684192639947848, 0.24953288771934612, 0.1472942732884594, 0.3425921310789791, 0.21678945257217738, -0.18226843857157346], [-0.06214194741597161, -0.21679883404620526, 0.2371640895732956, -0.9757413836639687, 0.22345056203466007, -1.1162637373729476, -0.1572102550927383, 0.00013103691623523602, -0.15273968179979186, 0.16283115696117456, -0.4304840823152322, 0.15722381614957745], [0.03353459782281183, 0.07989315510101089, 0.13382513023507625, 0.10230349338274165, -0.16551008133672768, -0.017123884225432668, -0.06545090408244349, 0.00023527627800104891, -0.17387864564818922, 0.15818127335646112, -0.20221087344595673, 0.019806627767340067], [0.003919128032309239, 0.31337382697026445, -0.11465602190947405, 0.43266456830074235, -0.07518733094008949, 0.46745213288744253, 0.03809942283168187, -0.14745517228740246, -0.31182325877758427, -0.177996625273419, -0.02307403250466236, -0.20817513724368833], [0.006953317009831819, -0.17875660945744865, 0.25348686204651755, 0.40524424123014524, -0.12900205557067565, 0.5384724593065326, 0.3208965005710004, -0.15409400334675177, 0.03901742676578866, 0.057989339675555016, 0.4570992137239788, 0.10636333631785287], [-0.11387918093006215, 0.059891671548830384, 0.05968068121477403, -0.0003808083881200416, -0.13867058495272333, -0.15268379781372385, -0.011216199232657233, -0.12965733065216686, 0.2469842152649041, 0.013770496421834956, 0.0909732101791303, 0.10101020331225082]], "fc2_biases": [-0.1456273002307093, -0.14562723582238563, -0.17317930475148666, -0.2681438371547066, 0.20659672346083752, 0.23742803192279918, 0.19405235796767237, 0.14577759914120175, 0.172176461023188]}